%YAML:1.0
my_nn: !!opencv-ml-ann-mlp
   layer_sizes: !!opencv-matrix
      rows: 1
      cols: 3
      dt: i
      data: [ 3, 9, 1 ]
   activation_function: SIGMOID_SYM
   f_param1: 6.6666666666666663e-01
   f_param2: 1.7159000000000000e+00
   min_val: -9.4999999999999996e-01
   max_val: 9.4999999999999996e-01
   min_val1: -9.7999999999999998e-01
   max_val1: 9.7999999999999998e-01
   training_params:
      train_method: BACKPROP
      dw_scale: 5.0000000745058060e-02
      moment_scale: 5.0000000745058060e-02
      term_criteria: { epsilon:9.9999997473787516e-06, iterations:97 }
   input_scale: [ 3.0557942958547364e+00, -1.8204956875380154e+00,
       1.7644844143371739e+02, -1.1440903769696882e+00,
       5.6211358736202746e+00, -1.6859031984351682e+00 ]
   output_scale: [ 1.0526315789473684e+00, 0. ]
   inv_output_scale: [ 9.4999999999999996e-01, 0. ]
   weights:
      - [ 7.7553157086738542e+00, 1.8064014335796890e+00,
          -3.4010451137093156e+00, 9.3128290999931296e-01,
          3.0527961886920676e+00, -1.9159823940068736e+00,
          1.0585663366729308e+00, 3.5328654086401898e+00,
          -2.7507404786215267e-01, -3.3250263527944881e+00,
          -2.0428930002168357e+00, 1.6886746754273159e+00,
          -3.7843631904507666e+00, 2.3674275120355950e+00,
          5.3106616652001934e-02, 4.0854878029706363e+00,
          1.8131451555701694e-01, 1.2606072516387474e+00,
          -9.4058343701359140e-02, -3.0558653746358169e+00,
          -7.8624073425191876e-01, 2.1773288124886476e+00,
          -1.1055688549740346e+00, -3.2689033497496411e+00,
          -8.6292239988834796e-01, 1.6222209376396002e+00,
          -3.8078454556738310e+00, -2.3264798687520347e+01,
          -1.8112461104063888e+00, 2.3747729325692770e+00,
          9.9523471125867791e-02, -5.4220324572868484e-01,
          6.5017380540469039e-01, -8.0769463529585461e-01,
          -4.4316255436718697e+00, 1.8565080758425883e+00 ]
      - [ 4.2178246552370313e-01, 6.1975322402806865e-01,
          -1.3313198837461210e-01, 7.7655727770756433e-01,
          -3.2567427527011839e-01, -4.6451512688048158e-01,
          5.8749730189219318e-01, 9.2530862809796866e-01,
          7.3116616185974259e-01, 1.9400559088043785e+00 ]
